digraph Tree {
node [shape=box, style="filled, rounded", color="black", fontname=helvetica] ;
edge [fontname=helvetica] ;
0 [label="sepal length (cm) <= 5.45\ngini = 0.66\nsamples = 93\nvalue = [42, 48, 60]\nclass = virginica", fillcolor="#f0e8fc"] ;
1 [label="petal width (cm) <= 0.7\ngini = 0.18\nsamples = 28\nvalue = [37, 4, 0]\nclass = setosa", fillcolor="#e88f4e"] ;
0 -> 1 [labeldistance=2.5, labelangle=45, headlabel="True"] ;
2 [label="gini = 0.0\nsamples = 25\nvalue = [37, 0, 0]\nclass = setosa", fillcolor="#e58139"] ;
1 -> 2 ;
3 [label="gini = 0.0\nsamples = 3\nvalue = [0, 4, 0]\nclass = versicolor", fillcolor="#39e581"] ;
1 -> 3 ;
4 [label="petal length (cm) <= 4.85\ngini = 0.53\nsamples = 65\nvalue = [5, 44, 60]\nclass = virginica", fillcolor="#e0cef9"] ;
0 -> 4 [labeldistance=2.5, labelangle=-45, headlabel="False"] ;
5 [label="petal length (cm) <= 2.55\ngini = 0.23\nsamples = 30\nvalue = [5, 41, 1]\nclass = versicolor", fillcolor="#55e993"] ;
4 -> 5 ;
6 [label="gini = 0.0\nsamples = 3\nvalue = [5, 0, 0]\nclass = setosa", fillcolor="#e58139"] ;
5 -> 6 ;
7 [label="petal width (cm) <= 1.7\ngini = 0.05\nsamples = 27\nvalue = [0, 41, 1]\nclass = versicolor", fillcolor="#3ee684"] ;
5 -> 7 ;
8 [label="gini = 0.0\nsamples = 25\nvalue = [0, 40, 0]\nclass = versicolor", fillcolor="#39e581"] ;
7 -> 8 ;
9 [label="sepal width (cm) <= 3.0\ngini = 0.5\nsamples = 2\nvalue = [0, 1, 1]\nclass = versicolor", fillcolor="#ffffff"] ;
7 -> 9 ;
10 [label="gini = 0.0\nsamples = 1\nvalue = [0, 0, 1]\nclass = virginica", fillcolor="#8139e5"] ;
9 -> 10 ;
11 [label="gini = 0.0\nsamples = 1\nvalue = [0, 1, 0]\nclass = versicolor", fillcolor="#39e581"] ;
9 -> 11 ;
12 [label="petal width (cm) <= 1.75\ngini = 0.09\nsamples = 35\nvalue = [0, 3, 59]\nclass = virginica", fillcolor="#8743e6"] ;
4 -> 12 ;
13 [label="sepal length (cm) <= 6.2\ngini = 0.47\nsamples = 5\nvalue = [0, 3, 5]\nclass = virginica", fillcolor="#cdb0f5"] ;
12 -> 13 ;
14 [label="gini = 0.0\nsamples = 2\nvalue = [0, 0, 3]\nclass = virginica", fillcolor="#8139e5"] ;
13 -> 14 ;
15 [label="sepal width (cm) <= 2.75\ngini = 0.48\nsamples = 3\nvalue = [0, 3, 2]\nclass = versicolor", fillcolor="#bdf6d5"] ;
13 -> 15 ;
16 [label="gini = 0.0\nsamples = 1\nvalue = [0, 2, 0]\nclass = versicolor", fillcolor="#39e581"] ;
15 -> 16 ;
17 [label="petal length (cm) <= 5.4\ngini = 0.44\nsamples = 2\nvalue = [0, 1, 2]\nclass = virginica", fillcolor="#c09cf2"] ;
15 -> 17 ;
18 [label="gini = 0.0\nsamples = 1\nvalue = [0, 1, 0]\nclass = versicolor", fillcolor="#39e581"] ;
17 -> 18 ;
19 [label="gini = 0.0\nsamples = 1\nvalue = [0, 0, 2]\nclass = virginica", fillcolor="#8139e5"] ;
17 -> 19 ;
20 [label="gini = 0.0\nsamples = 30\nvalue = [0, 0, 54]\nclass = virginica", fillcolor="#8139e5"] ;
12 -> 20 ;
}